2 25
attention 0.14168 0.5925 -1.4448 0.80062 0.46077 0.27017 1.1223 -0.93872 -0.73021 0.079767 -0.7676 0.09022 -3.6241 0.096151 -0.19432 1.0237 -0.25459 -0.91995 -0.74403 -0.24375 0.89997 -0.36769 -0.033475 -0.59115 -1.1301
concentration -0.36197 -0.16204 -1.4962 0.74443 0.42471 0.24884 0.31459 -1.5813 0.5115 -0.17169 -0.39411 -0.15598 -1.7024 1.3174 1.1762 0.64555 0.065443 0.38505 0.79668 -0.30602 -0.57295 0.40996 -0.033827 -0.18664 -0.28624
